{"feature_order": ["ppmi", "cos", "freq_x", "centrality_x", "entropy_x", "distance", "rs_over_rc_x", "fan_x", "num_scales", "in_w5", "in_w10", "in_w20"], "norm": {"mean": [0.604483582811082, 0.31989368751499525, 640.5629468331973, 1218.5598034650654, 0.9368481610147599, 10.152711275798099, 0.017558955566613126, 1761.531484874129, 0.9862224244940346, 0.1770222877087474, 0.3082508824816625, 0.5009492543036247], "std": [1.0058358759140937, 0.3303916303819089, 1597.2340274014455, 513.1441492720612, 0.031615868709799634, 3.8300647666572054, 0.0442725832963273, 1469.6117539942725, 1.156796727888935, 0.3816875651030751, 0.4617708045409229, 0.4999990989170512]}, "W1": [[0.02055535490761039, -0.11428319975520522, 0.07482786658616361, 0.09362874486987337, -0.19582330885104393, -0.12896771067172302, 0.012566807483530408, -0.03184395043470215, -0.010695570067426228, -0.08924208162446984, 0.0810383921084818, 0.06630074552734114], [0.020472878829664892, 0.1274816037707736, 0.04719173570907034, -0.08500470336453146, 0.03799177836636727, -0.09703080031701691, 0.08828532812208442, -0.0044374232856193956, -0.005826862112014823, -0.06269289778711801, 0.1316246024881332, 0.0010594403342448488], [-0.02830046969086726, -0.019952536992460017, 0.053455291656888664, 0.03717935281282837, 0.04259448532322526, 0.04171810202552004, 0.214389265024096, -0.040359657652358244, -0.038065039988998704, -0.07590216238109258, 0.07155192194222006, 0.12996989763977262], [8.609620875029821e-05, -0.07194838921275971, -0.08212517389415715, 0.06563891527365359, 0.07521171514907282, 0.053086147649646816, -0.06622799051364756, 0.02354964482095502, 0.022160354213574648, 0.026369591721888568, 0.09510270509590713, 0.03584629860047106], [0.07053100918040191, 0.009493211595470645, 0.028946171991771994, 0.06308373063265862, -0.1453135942608679, -0.032125123900763844, -0.04700237077453322, -0.06396295820289964, -0.025200912789479616, 0.15036756448288902, -0.08485032039894438, 0.09991284324388806], [-0.15978760463573574, -0.023522312709760095, 0.016786894182435272, 0.05946704336111839, 0.07170691290221295, 0.07907027123673357, -0.0343616563498429, -0.0456413302066353, 0.09402050041568603, -0.015858184866624735, -0.12159803790416615, -0.10231627033344214], [-0.09201775270922012, 0.0496602823761502, 0.014261081163098797, 0.06910238186931707, -0.04279836275795645, 0.01583945535697745, 0.06257735206712237, -0.03088629627624324, 0.045639661133082314, -0.06619039003380688, -0.03632317568305935, -0.03824664002823984], [-0.11920082450715458, 0.049269252507707376, -0.04680887113973405, 0.001535677652828676, 0.04782194283463955, 0.044586552005518844, 0.06666905296261706, -0.009597866315889637, -0.04183248982478801, -0.007715037401508561, -0.1683366332710201, -0.14412309336443188], [-0.14004946349775882, -0.1087764354741235, 0.03958166288546462, -0.09081463563727331, -0.03857601569481206, 0.1292504306051871, -0.03602314137335405, 0.07354532733544827, -0.10037267648146858, -0.022734340769349486, -0.09975367241903942, -0.04406330237107385], [0.08719097295522975, -0.16925979721027296, 0.04361851798253738, 0.02398907534901345, -0.05915691506932851, -0.14493927531584946, 0.007389123480605908, -0.05278952564852143, 0.026257560028199074, 0.003412364585859895, 0.16247824812105163, -0.02007930580104242], [-0.10281193535075984, 0.017513922336480824, 0.022075508980427535, 0.13612203000691958, 0.08320203779911507, 0.03562432156493582, 0.1464053738991283, -0.11868563777738739, -0.0642775749072986, -0.09269820279267377, -0.039161035004042, -0.1381710087386498], [0.053263305054013776, -0.033320830120960224, -0.14772792672212076, -0.10242569029688606, 0.030666415990771374, 0.08450744773429834, 0.19902648691707972, 0.29068771263857296, 0.03205248214306685, -0.10260669148816051, -0.2202921333780849, 0.014384164960811529], [-0.08219688567471507, -0.04242549280018853, -0.061191834340001486, -0.014017618558755917, 0.10640236023186628, 0.015761448448351825, -0.015845981424471862, -0.10349561313923847, -0.16822425481466344, -0.04890855905688591, -0.005944454821234115, 0.1757789549410147], [0.013160061082546986, 0.09832617596551994, -0.0499944973601206, -0.11867344904224562, -0.09629554234163133, -0.07247105489925214, 0.212782657780197, -0.08229878842001177, 0.08386582286432895, -0.09034063649996954, 0.09313782618806307, 0.03858876827304158], [-0.0010685195419535823, 0.011555310809195196, -0.06491396208266888, 0.04517501311781701, -0.04389212222023234, -0.12319864375383971, -0.12722772492639278, 0.017598311979451484, 0.17097821159441398, 0.02088526356838272, -0.0021281475227483996, 0.04609795807706711], [0.13794919413323917, 0.030076704263263514, -0.04074175684022718, 0.11108241192176747, 0.04343544084487239, 0.15285467629254523, 0.018674501984164253, -0.12212949648340807, -0.1298676751773559, 0.16794361338439093, 0.17760541499088614, -0.008891026047724212], [-0.0375581753221162, 0.14686706185110246, -0.11073277899036804, -0.08956926967457932, 0.06455740689159663, -0.03943378293287155, -0.0005399601293488658, -0.016439910798636707, 0.034335041435602544, 0.14090479325184732, 0.009460100724089137, 0.06523972776954988], [-0.20354504347163385, -0.0032052423336490147, -0.08420702154605016, -0.1216859205120787, -0.08785638467669742, -0.03358345244854804, 0.09170594073246811, -0.1324788694654086, 0.004506403508410996, -0.04778544192588111, -0.031659947018429835, 0.10211012168338422], [0.05521247198587453, 0.13519571432467042, -0.015475543123968915, -0.06969284457016171, -0.021974674885590115, 0.024401516583698962, 0.017632954458260245, -0.10855535919521303, 0.010153650997662658, 0.02314128862662267, 0.2524198411963607, 0.18937610296540874], [-0.0877792260291214, -0.03125038661687092, -0.1462037431145347, -0.05868376908832184, 0.03080516778152915, 0.12038080500101038, -0.07276962812702627, -0.06502031062034283, -0.216659646037205, -0.016768566145662675, -0.10753834840794682, -0.05582996013398488], [-0.09601028033294547, -0.018216988686239936, -0.17608043098372844, -0.14746689206703043, 0.21281942406379065, -0.128117470480929, -0.10998463391032896, 0.18312303413350592, 0.2829889575292227, -0.12029657055309195, -0.042430494054447716, 0.02433642923095056], [0.17152810891949682, -0.10014313920158066, -0.02456253475776674, 0.0776663732548, 0.04333986592125606, -0.03748957066603321, -0.013417085814084061, -0.1375205953893286, -0.025068564606296286, -0.02716749039142336, 0.022276102306344067, -0.05715489428006181], [0.04291502237929788, 0.09652946786842956, 0.015290787117555972, 0.03481945602838817, 0.005111964049476569, -9.416577349511752e-05, -0.07240776999511901, 0.03138358428362677, -0.013526297904521051, 0.20812808847068368, 0.15454142074654595, 0.0332863509811416], [-0.08645833857171904, -0.1222465927124027, 0.11872624235840867, 0.025436715022090405, 0.047233800132085384, -0.17280030229967913, 0.0923567812560968, 0.04487146209761758, -0.12076201897543638, -0.05140139500966314, 0.01879172395981393, -0.006995084956375458], [-0.025328862385505253, -0.006218575818715291, -0.025036369433424608, 0.01550453285270596, 0.14737094856800878, -0.25715139236013207, -0.02352375884042632, 0.01781873025807982, 0.033208689828242585, -0.035622838815607474, -0.17290693735696747, 0.03739872837564421], [0.1760736399240015, -0.14963667493418525, 0.08645021343411047, -0.03286471219615084, -0.005562595255986024, -0.10515135652874832, -0.03337739718960331, 0.12994456820717104, 0.061219874532438434, 0.17407220807983917, 0.11989254022601532, 0.04811494382954968], [0.16413686800109475, 0.031284028008458226, 0.08210299142192336, -0.03131728397688966, 0.006490475068950215, -0.06980679864935682, 0.09826583891230727, -0.11907030479276952, 0.06807780664687603, -0.022949248702959987, 0.10993252829562662, 0.06119451513716867], [0.1811611781498187, 0.07210781946671337, -0.15725753760783062, -0.006780146798364599, -0.11722787437211607, -0.051723023543915746, 0.15106942320094016, 0.06368857842335973, -0.07073970009487433, -0.10174605030613146, 0.002634079595349293, -0.12273421521101822], [-0.05914848692259775, 0.039554993775125606, 0.1155902018809011, 0.060971033045329595, -0.22828905190357304, 0.029903834677792313, 0.00726305612831896, 0.04134180235436409, 0.16870500106292718, -0.2035081927755652, -0.05381556080156471, 0.06844088439361372], [-0.1503020355505917, 0.15651922128753715, 0.03710038087482098, 0.08527958122777009, -0.05645087700169642, 0.08077900080869328, 0.10711131106387006, 0.02367134470988174, 0.030987081167559116, 0.03020261120347943, -0.08072984578133273, -0.0048869267152258766], [-0.006572786895683065, 0.047489135653122815, 0.10043695128546536, -0.10503854754917036, -0.011941053704730158, 0.14683471104919574, -0.07390511347438823, -0.08165685440095333, 0.028320380332616902, 0.08797064637842249, 0.00743406567725589, 0.14310573253335002], [0.08624795785614021, 0.0847585769607838, 0.05541255431761695, 0.23276009703967782, -0.020427117129952918, -0.2004035858846711, 0.1604264414557964, -0.045783778920766745, 0.011280423545223184, 0.13114313634360128, -0.15985186892452902, -0.12451460470578371], [-0.16719141119109007, -0.08707037510541227, 0.04372344174002734, 0.051970936730865204, 0.026956506474015138, -0.1401469378063339, -0.2312505523763708, 0.005174575962777369, -0.053942124525035856, 0.0429569324946407, 0.0649239951764652, 0.005318216553125898], [0.06791721607648621, 0.014092903768613316, 0.0526449249798771, -0.07126894708795795, -0.01839759482118964, 0.020683521728852978, 0.08169236366891842, -0.03991516234641452, 0.04441526547193112, -0.02997059756707595, -0.017643279544625988, 0.07315796998796065], [-0.1967468152850252, -0.1269395969585977, -0.14812123275019468, -0.23316868344872205, -0.06772676671641056, 0.074663318392995, -0.028391330229666216, 0.01991740682503136, 0.11127901562587418, 0.13380476206863168, -0.0051295564143243105, 0.13837356205609688], [0.011697405319186947, -0.0810352650556362, -0.05924938627691193, -0.14773676374341385, -0.08886753704613641, -0.03607262742296551, 0.0805485899097623, 0.17234207988199615, -0.13586512164329553, 0.04033324868199372, -0.1022782314256188, 0.050471381865549114], [-0.002435566800252056, -0.17177317452306223, 0.09327191503853677, -0.059859999691922655, -0.05254521905341841, -0.10820691846079741, -0.06498608477580355, 0.04320202775252243, -0.00907137425145376, 0.037049695211514876, 0.04375144609799404, 0.1446872952458232], [-0.025331661856016666, -0.13813252150814878, 0.10700696984156943, -0.03271502804357604, 0.11209846711560946, 0.037906940251438814, -0.01282878590588787, 0.035139672945235026, 0.20310310829011183, 0.21061710235816, 0.012985519892767665, 0.02671875050302596], [0.10667404931527708, -0.08563909432887148, 0.03326645314400238, -0.002714891830945959, 0.03137385945711427, -0.08321717618329615, -0.15899705991282945, -0.2073867798803336, -0.11267154172193063, -0.04628632311565804, -0.030036145703488108, 0.1925460944440121], [0.10242350509205775, -0.1056160125798309, 0.03424737277809693, -0.04177788070584678, -0.028731103463862602, 0.019708898686692296, 0.06139532249639386, -0.034704275623588784, 0.09817987021426446, -0.118011549647044, -0.005601918888325352, 0.24945706673043747], [0.02054984191247205, 0.1413921635912016, 0.009012676758510337, 0.05784805965384148, -0.005662839960183898, -0.01686177082450042, -0.07808723302014456, 0.042845519714347455, -0.08682731363273495, 0.06582984688937515, 0.10725124190657495, 0.034517158912541195], [-0.026918564364171206, 0.04721112273707532, -0.030814271390431112, 0.09366741628010708, -0.18307563088462797, -0.03374232076163837, -0.19902826056486786, -0.14943224516214845, 0.13795881536018045, 0.09018372935808887, -0.070747613693659, -0.14822845169391166], [-0.2981940587658511, -0.05648786096895092, 0.24196409733739957, 0.04338032156597455, -0.056166543645640464, 0.04662472442047113, -0.156173337021099, -0.029796432179615896, 0.00817037110977534, -0.00931455661588031, 0.0777639351026323, 0.03210618974420705], [0.06339927701050749, -0.07246573776726542, 0.08975965764001172, 0.1628093813766648, -0.09741195940288808, -0.08849573182209769, 0.13355637437519202, -0.019139205198507377, 0.1372881371824533, -0.04551974202154173, 0.14317454446552463, 0.009108738993104888], [0.02752785372318617, 0.15830423277880376, -0.036113711252823574, -0.0939609636248608, -0.044792590446811685, 0.045008623262666685, -0.15651279635940007, 0.06385164067700606, -0.05226437410066833, 0.11553035517075286, -0.23820172559619238, -0.07662784078274479], [-0.17293081114439576, -0.08722579850441788, 0.024587374048777595, -0.018166217427493962, -0.025713752901462394, -0.015405275192716332, 0.020159497348117693, -0.10100810040859096, 0.06667009764556305, 0.06452722621590015, 0.03543923068968922, 0.050522610239725194], [0.025046202820317217, 0.19853117908013346, -0.008948332095015088, -0.031143481781102888, -0.07554855232131576, -0.1028719054869814, -0.1246855180998829, -0.08920459175059575, -0.011320434691095987, 0.03169220730861522, 0.0019043833787629647, -0.08210123405606876], [0.09234511322088791, 0.07642881698964003, -0.015921381402461524, -0.06515613883486833, 0.055050538615045726, 0.018547470909438146, -0.14476935822371398, -0.006730608493871747, 0.028359029848402578, -0.08903801407690874, 0.02061415863070945, -0.14271167453378428], [0.1313759985378986, 0.12224820724213016, -0.02540969441157357, 0.03612973879581333, -0.24103605570266007, -0.11561010178587003, -0.029535646271462865, -0.10738475258613099, 0.06936261086806553, 0.19904328983640934, -0.1192377344509315, -0.08657206898598009], [0.0252951955601425, 0.1629951060919709, -0.1221918487519753, 0.025004777416151903, 0.18223540253862416, -0.16528244673835887, -0.12806145911322975, -0.042294352294870045, -0.05047355254396917, 0.08187421912436474, 0.02535514015026243, -0.17539551610403709], [0.053193116195077834, -0.0559384170273193, 0.12756641757087883, -0.06251183448142722, -0.0637134130755391, 0.053967830383966985, 0.07641380705257066, 0.0450138441271923, -0.1669981995725899, 0.05448583380823663, -0.10225885518033548, 0.025537101389207974], [-0.151915600301578, 0.03426574884626081, -0.08087883291300434, -0.128571211928524, 0.07023648452778954, 0.024939746295007822, -0.06161739646917141, 0.14500272049858096, -0.05289404699097522, -0.00039672924826008324, 0.020273749613192223, -0.07352738163484514], [0.04351740191078392, -0.057073429901195405, -0.041286165043283155, 0.13586628272045093, -0.10423496629811226, -0.2407318012658584, 0.1609722292301605, 0.25466302616560293, -0.04380698399696175, -0.19508969734149262, -0.033600364929259434, -0.03278094997347502], [-0.009334329062503501, -0.10057059215396348, 0.05855909144066497, 0.054060407769831176, -0.1498897487894808, 0.06900696741237922, 0.2058673728965999, 0.018474535548045824, -0.02445886161433178, -0.010297676066330683, 0.06860768316747311, -0.16113138253632286], [0.0067842364949510705, -0.049174966406639826, 0.18455102640894233, -0.017851428987498134, 0.16613495341576892, -0.1091043172371439, 0.058494346127119984, 0.031689578937880734, -0.09580955811856301, 0.013885833653819407, 0.11436346854053411, -0.043677738770215434], [-0.1856748375293937, -0.01985066560257522, -0.09051443352501584, -0.03497623554586667, -0.00982694360394638, -0.16910131754775973, -0.16183843942454637, 0.04789874424640927, -0.06758763104656847, -0.26240741510599636, 0.06684947428835775, 0.007076925261404547], [-0.08704350043897162, -0.1479737455582391, 0.08307592668209872, 0.03441888976137633, 0.2371945103957438, 0.04391590556109302, 0.03826425288704401, -0.016997256648338985, 0.06734606606830207, 0.05628063151135302, 0.11413913828894674, -0.07034565237807171], [-0.04381847242639649, -0.048150156534663285, 0.07911991052426015, 0.14994913667998658, -0.04605939379568563, -0.042508935626309606, 0.03144704693205283, -0.024472845230603738, 0.09502736261337831, -0.22519956822477, -0.0827798459342064, -0.07853580714868927], [-0.23264430958700877, -0.0969368636335515, -0.09145812064866077, -0.019935141033179393, 0.11100741104641561, -0.024526995650582036, -0.10302458264210403, -0.005530369206857335, 0.10446231483867748, -0.09771749469034532, -0.09136527770908077, 0.05517919288264439], [-0.0236862234236338, 0.06317124268012635, -0.0013643388565743881, 0.07022260711978029, -0.10375828004159462, -0.001116869578342861, -0.021069145697388016, -0.1215157736127182, -0.15768084557704815, 0.06804921954113209, -0.03606518770590524, -0.10401508618089056], [-0.0002542588153520817, 0.12284149887262488, -0.22778760365842324, -0.14915334179355252, -0.09168010167916994, 0.1451855206002461, 0.028544825543744354, 0.07705418521723915, -0.10540299430622348, -0.10857026794402909, 0.051445337494314895, 0.017017467770609206], [0.03286031433971512, -0.04099536014374159, 0.02806687729982205, 0.016071831888305486, 0.07434829615925241, 0.08276072874349244, -0.16173846660751873, -0.2239677225488304, 0.08093934732150038, 0.11057279258708776, -0.11641811428651641, -0.21096835118251367], [0.013697518722907186, 0.09699359742822596, 0.1796564069466752, 0.051375804607333424, -0.036325871793368165, -0.08917801156636736, 0.0010435661446851854, -0.030238871658919465, -0.09840760040406664, 0.2057312144051204, 0.1807507607434042, 0.11805884249842623], [-0.08010198459077064, 0.09867815983671273, 0.06448756195468312, 0.045034070850650205, 0.12566894287239758, 0.06285536707701209, 0.07452619883980544, 0.06423350180784117, 0.0451329012209257, -0.17415778365247844, 0.016697472634687495, -0.040952035053446606]], "b1": [0.0001944310847729766, -0.0002228422196884033, -0.00014281074404508859, -3.616569005303398e-05, -1.658210696671553e-05, -0.00042140335104286594, 1.060331761707581e-06, -3.065174936486732e-05, 0.000489497923328421, -0.000285703277722788, 1.085801031164021e-05, 0.0006658245784362824, 1.3144794374803155e-05, 6.264263861315665e-06, -0.0006190609344513019, -0.00022969147649421696, 1.6646894692546648e-06, -2.6225460495254444e-05, -1.3575908524748385e-05, 1.3794405853958873e-05, 0.00016600517052517473, 5.0060969697765694e-05, 0.00013941232161608427, 0.0005018163275075265, -3.9000230170440486e-05, -0.00035304723714326834, 0.0006837313765991035, 5.878238950804009e-06, -0.00010226982320916473, -0.0005133921360328464, -0.00010774999317076563, -2.6815549637597107e-05, 0.0002822906054331395, 7.774741781038592e-05, -2.0702430423670446e-05, -2.9017550128233932e-05, -0.0002406011889121351, -0.0003135688745790398, 6.201929321998864e-05, 0.0002925468770685463, 1.2393824375196626e-05, -2.868736244487653e-05, 0.00021413555003496875, 0.00012797557484592797, -7.12513455680993e-05, 0.00010864655790454773, 0.00012394613787072357, -5.1296991517130856e-05, 0.00010821748270807742, -6.551345614593126e-05, -6.679579802292858e-05, 0.00014817198538300786, 0.00016002403590967761, -0.0006670438450598933, 0.0002505687603072166, 0.0004265656929713793, 3.54005370802023e-05, -7.301510749352095e-07, 6.648190173536561e-06, 2.058806437504326e-06, -0.0005738141151018658, -0.00013326306867690843, -6.623842092409412e-05, -0.0005131564034530599], "W2": [-0.1258710979576651, 0.1837636981668818, 0.1773280631405712, 0.13828719510961587, 0.03858377981267271, 0.10815012586745708, -0.00645185386087906, -0.010775076881952913, -0.14490511374874784, 0.04184120073240883, -0.022042147091612133, -0.13788815438926597, -0.012673554395096548, 0.013605151760778561, 0.19505770299313147, 0.1053881648132902, 0.023830522561453453, 0.013225098643332728, 0.04946951238332902, -0.055137819736537974, -0.0971436822316017, -0.01605942352403388, -0.04568654390641329, -0.14742660994957274, 0.0457821101795763, 0.06014394829854063, -0.14471311402063822, -0.011389503404412363, 0.10457827254849916, 0.10354979987489271, 0.12099089085240292, 0.005049650194330048, -0.10101104490826308, -0.09116148662732128, 0.02974344141437696, 0.020888340748916316, 0.1285681071093768, 0.11937657131972233, -0.005023017458061029, -0.09629675066891329, -0.012132741228585802, 0.016548754318375655, -0.039999073634489256, -0.04009443209579936, 0.018049772487801694, -0.05731616764975898, -0.0504621076206078, 0.030923985343383496, -0.02404687814065644, 0.025189390229173735, 0.011918158586624844, -0.13137916721784137, -0.058826763448526644, 0.11855489272096296, -0.11912817178299517, -0.2322987021739279, -0.194117552077336, -0.015573189334947436, -0.018469911065068498, -0.030624806064076013, 0.12005597124847013, -0.2804473668122319, 0.06768408627924838, 0.15124661286012864], "b2": 0.0}